/* 
   Copyright (C) 2004
   Rensselaer Polytechnic Institute

   This file is part of Trellis written and maintained by the 
   Scientific Computation Research Center (SCOREC) at Rensselaer Polytechnic
   Intitute, Troy, NY, USA.

   This program is free software; you can redistribute it and/or modify it
   under the terms of the Rensselaer SCOREC Public License.

   This program is distributed in the hope that it will be useful, 
   but WITHOUT ANY WARRANTY; without even the implied warranty of
   MERCHANTABILITY or FITNESS FOR A PARTICULAR PURPOSE.  See the
   license text for more details.
   
   You should have received a copy of the Rensselaer SCOREC Public License
   along with this program; if not, write to Rensselaer Polytechnic Institure,
   110 8th Street, SCOREC, Troy, NY  12180, USA
*/
/*-------------------------------*/
/* last modification 01/25/2001  */
/*-------------------------------*/

 #include <stdlib.h>
 #include <stdio.h>


 /* 1 point rule points */
 static double _GL_pt1[1]={
  0.000000000000000e+00};

 /* 1 point rule weights */
 static double _GL_wt1[1]={
  2.000000000000000e+00};

 /* 2 point rule points */
 static double _GL_pt2[2]={
 -5.773502691896257e-01, 5.773502691896257e-01};

 /* 2 point rule weights */
 static double _GL_wt2[2]={
  1.000000000000000e+00, 1.000000000000000e+00};

 /* 3 point rule points */
 static double _GL_pt3[3]={
 -7.745966692414834e-01, 0.000000000000000e+00, 7.745966692414834e-01};

 /* 3 point rule weights */
 static double _GL_wt3[3]={
  5.555555555555552e-01, 8.888888888888888e-01, 5.555555555555552e-01};

 /* 4 point rule points */
 static double _GL_pt4[4]={
 -8.611363115940526e-01,-3.399810435848563e-01, 3.399810435848563e-01, 8.611363115940526e-01};

 /* 4 point rule weights */
 static double _GL_wt4[4]={
  3.478548451374537e-01, 6.521451548625464e-01, 6.521451548625464e-01, 3.478548451374537e-01};

 /* 5 point rule points */
 static double _GL_pt5[5]={
 -9.061798459386640e-01,-5.384693101056831e-01, 0.000000000000000e+00, 5.384693101056831e-01, 9.061798459386640e-01};

 /* 5 point rule weights */
 static double _GL_wt5[5]={
  2.369268850561890e-01, 4.786286704993665e-01, 5.688888888888889e-01, 4.786286704993665e-01, 2.369268850561890e-01};

 /* 6 point rule points */
 static double _GL_pt6[6]={
 -9.324695142031521e-01,-6.612093864662646e-01,-2.386191860831969e-01, 2.386191860831969e-01, 6.612093864662646e-01, 9.324695142031521e-01};

 /* 6 point rule weights */
 static double _GL_wt6[6]={
  1.713244923791705e-01, 3.607615730481386e-01, 4.679139345726913e-01, 4.679139345726913e-01, 3.607615730481386e-01, 1.713244923791705e-01};

 /* 7 point rule points */
 static double _GL_pt7[7]={
 -9.491079123427585e-01,-7.415311855993945e-01,-4.058451513773972e-01, 0.000000000000000e+00, 4.058451513773972e-01, 7.415311855993945e-01, 9.491079123427585e-01};

 /* 7 point rule weights */
 static double _GL_wt7[7]={
  1.294849661688697e-01, 2.797053914892767e-01, 3.818300505051190e-01, 4.179591836734694e-01, 3.818300505051190e-01, 2.797053914892767e-01, 1.294849661688697e-01};

 /* 8 point rule points */
 static double _GL_pt8[8]={
 -9.602898564975363e-01,-7.966664774136268e-01,-5.255324099163290e-01,-1.834346424956498e-01, 1.834346424956498e-01, 5.255324099163290e-01, 7.966664774136268e-01, 9.602898564975363e-01};

 /* 8 point rule weights */
 static double _GL_wt8[8]={
  1.012285362903768e-01, 2.223810344533745e-01, 3.137066458778874e-01, 3.626837833783620e-01, 3.626837833783620e-01, 3.137066458778874e-01, 2.223810344533745e-01, 1.012285362903768e-01};

 /* 9 point rule points */
 static double _GL_pt9[9]={
 -9.681602395076261e-01,-8.360311073266359e-01,-6.133714327005905e-01,-3.242534234038089e-01, 0.000000000000000e+00, 3.242534234038089e-01, 6.133714327005905e-01, 8.360311073266359e-01, 9.681602395076261e-01};

 /* 9 point rule weights */
 static double _GL_wt9[9]={
  8.127438836157463e-02, 1.806481606948576e-01, 2.606106964029355e-01, 3.123470770400029e-01, 3.302393550012598e-01, 3.123470770400029e-01, 2.606106964029355e-01, 1.806481606948576e-01, 8.127438836157463e-02};

 /* 10 point rule points */
 static double _GL_pt10[10]={
 -9.739065285171716e-01,-8.650633666889845e-01,-6.794095682990244e-01,-4.333953941292472e-01,-1.488743389816312e-01, 1.488743389816312e-01, 4.333953941292472e-01, 6.794095682990244e-01, 8.650633666889845e-01, 9.739065285171716e-01};

 /* 10 point rule weights */
 static double _GL_wt10[10]={
  6.667134430868774e-02, 1.494513491505805e-01, 2.190863625159822e-01, 2.692667193099962e-01, 2.955242247147529e-01, 2.955242247147529e-01, 2.692667193099962e-01, 2.190863625159822e-01, 1.494513491505805e-01, 6.667134430868774e-02};

 /* 11 point rule points */
 static double _GL_pt11[11]={
 -9.782286581460570e-01,-8.870625997680953e-01,-7.301520055740494e-01,-5.190961292068118e-01,-2.695431559523450e-01, 0.000000000000000e+00, 2.695431559523450e-01, 5.190961292068118e-01, 7.301520055740494e-01, 8.870625997680953e-01, 9.782286581460570e-01};

 /* 11 point rule weights */
 static double _GL_wt11[11]={
  5.566856711617354e-02, 1.255803694649047e-01, 1.862902109277343e-01, 2.331937645919903e-01, 2.628045445102466e-01, 2.729250867779006e-01, 2.628045445102466e-01, 2.331937645919903e-01, 1.862902109277343e-01, 1.255803694649047e-01, 5.566856711617354e-02};

 /* 12 point rule points */
 static double _GL_pt12[12]={
 -9.815606342467192e-01,-9.041172563704748e-01,-7.699026741943047e-01,-5.873179542866175e-01,-3.678314989981802e-01,-1.252334085114689e-01, 1.252334085114689e-01, 3.678314989981802e-01, 5.873179542866175e-01, 7.699026741943047e-01, 9.041172563704748e-01, 9.815606342467192e-01};

 /* 12 point rule weights */
 static double _GL_wt12[12]={
  4.717533638651183e-02, 1.069393259953182e-01, 1.600783285433463e-01, 2.031674267230658e-01, 2.334925365383548e-01, 2.491470458134029e-01, 2.491470458134029e-01, 2.334925365383548e-01, 2.031674267230658e-01, 1.600783285433463e-01, 1.069393259953182e-01, 4.717533638651183e-02};

 /* 13 point rule points */
 static double _GL_pt13[13]={
 -9.841830547185881e-01,-9.175983992229780e-01,-8.015780907333099e-01,-6.423493394403402e-01,-4.484927510364468e-01,-2.304583159551348e-01, 1.232595164407831e-32, 2.304583159551348e-01, 4.484927510364468e-01, 6.423493394403402e-01, 8.015780907333099e-01, 9.175983992229780e-01, 9.841830547185881e-01};

 /* 13 point rule weights */
 static double _GL_wt13[13]={
  4.048400476531581e-02, 9.212149983772838e-02, 1.388735102197872e-01, 1.781459807619457e-01, 2.078160475368884e-01, 2.262831802628971e-01, 2.325515532308739e-01, 2.262831802628971e-01, 2.078160475368884e-01, 1.781459807619457e-01, 1.388735102197872e-01, 9.212149983772838e-02, 4.048400476531581e-02};

 /* 14 point rule points */
 static double _GL_pt14[14]={
 -9.862838086968123e-01,-9.284348836635736e-01,-8.272013150697650e-01,-6.872929048116855e-01,-5.152486363581541e-01,-3.191123689278897e-01,-1.080549487073437e-01, 1.080549487073437e-01, 3.191123689278897e-01, 5.152486363581541e-01, 6.872929048116855e-01, 8.272013150697650e-01, 9.284348836635736e-01, 9.862838086968123e-01};

 /* 14 point rule weights */
 static double _GL_wt14[14]={
  3.511946033175199e-02, 8.015808715976037e-02, 1.215185706879031e-01, 1.572031671581936e-01, 1.855383974779378e-01, 2.051984637212955e-01, 2.152638534631578e-01, 2.152638534631578e-01, 2.051984637212955e-01, 1.855383974779378e-01, 1.572031671581936e-01, 1.215185706879031e-01, 8.015808715976037e-02, 3.511946033175199e-02};

 /* 15 point rule points */
 static double _GL_pt15[15]={
 -9.879925180204854e-01,-9.372733924007060e-01,-8.482065834104272e-01,-7.244177313601701e-01,-5.709721726085388e-01,-3.941513470775634e-01,-2.011940939974345e-01, 1.232595164407831e-32, 2.011940939974345e-01, 3.941513470775634e-01, 5.709721726085388e-01, 7.244177313601701e-01, 8.482065834104272e-01, 9.372733924007060e-01, 9.879925180204854e-01};

 /* 15 point rule weights */
 static double _GL_wt15[15]={
  3.075324199611663e-02, 7.036604748810814e-02, 1.071592204671720e-01, 1.395706779261543e-01, 1.662692058169940e-01, 1.861610000155622e-01, 1.984314853271116e-01, 2.025782419255613e-01, 1.984314853271116e-01, 1.861610000155622e-01, 1.662692058169940e-01, 1.395706779261543e-01, 1.071592204671720e-01, 7.036604748810814e-02, 3.075324199611663e-02};

 /* 16 point rule points */
 static double _GL_pt16[16]={
 -9.894009349916499e-01,-9.445750230732326e-01,-8.656312023878318e-01,-7.554044083550030e-01,-6.178762444026438e-01,-4.580167776572274e-01,-2.816035507792589e-01,-9.501250983763744e-02, 9.501250983763744e-02, 2.816035507792589e-01, 4.580167776572274e-01, 6.178762444026438e-01, 7.554044083550030e-01, 8.656312023878318e-01, 9.445750230732326e-01, 9.894009349916499e-01};

 /* 16 point rule weights */
 static double _GL_wt16[16]={
  2.715245941175406e-02, 6.225352393864778e-02, 9.515851168249290e-02, 1.246289712555339e-01, 1.495959888165768e-01, 1.691565193950026e-01, 1.826034150449236e-01, 1.894506104550685e-01, 1.894506104550685e-01, 1.826034150449236e-01, 1.691565193950026e-01, 1.495959888165768e-01, 1.246289712555339e-01, 9.515851168249290e-02, 6.225352393864778e-02, 2.715245941175406e-02};

 /* 17 point rule points */
 static double _GL_pt17[17]={
 -9.905754753144174e-01,-9.506755217687678e-01,-8.802391537269859e-01,-7.815140038968014e-01,-6.576711592166907e-01,-5.126905370864769e-01,-3.512317634538763e-01,-1.784841814958479e-01, 1.232595164407831e-32, 1.784841814958479e-01, 3.512317634538763e-01, 5.126905370864769e-01, 6.576711592166907e-01, 7.815140038968014e-01, 8.802391537269859e-01, 9.506755217687678e-01, 9.905754753144174e-01};

 /* 17 point rule weights */
 static double _GL_wt17[17]={
  2.414830286854792e-02, 5.545952937398713e-02, 8.503614831717915e-02, 1.118838471934039e-01, 1.351363684685256e-01, 1.540457610768104e-01, 1.680041021564499e-01, 1.765627053669926e-01, 1.794464703562065e-01, 1.765627053669926e-01, 1.680041021564499e-01, 1.540457610768104e-01, 1.351363684685256e-01, 1.118838471934039e-01, 8.503614831717915e-02, 5.545952937398713e-02, 2.414830286854792e-02};

 /* 18 point rule points */
 static double _GL_pt18[18]={
 -9.915651684209310e-01,-9.558239495713977e-01,-8.926024664975557e-01,-8.037049589725231e-01,-6.916870430603532e-01,-5.597708310739475e-01,-4.117511614628426e-01,-2.518862256915055e-01,-8.477501304173531e-02, 8.477501304173531e-02, 2.518862256915055e-01, 4.117511614628426e-01, 5.597708310739475e-01, 6.916870430603532e-01, 8.037049589725231e-01, 8.926024664975557e-01, 9.558239495713977e-01, 9.915651684209310e-01};

 /* 18 point rule weights */
 static double _GL_wt18[18]={
  2.161601352648315e-02, 4.971454889496984e-02, 7.642573025488918e-02, 1.009420441062872e-01, 1.225552067114784e-01, 1.406429146706506e-01, 1.546846751262652e-01, 1.642764837458327e-01, 1.691423829631435e-01, 1.691423829631435e-01, 1.642764837458327e-01, 1.546846751262652e-01, 1.406429146706506e-01, 1.225552067114784e-01, 1.009420441062872e-01, 7.642573025488918e-02, 4.971454889496984e-02, 2.161601352648315e-02};

 /* 19 point rule points */
 static double _GL_pt19[19]={
 -9.924068438435844e-01,-9.602081521348300e-01,-9.031559036148179e-01,-8.227146565371428e-01,-7.209661773352294e-01,-6.005453046616810e-01,-4.645707413759609e-01,-3.165640999636298e-01,-1.603586456402254e-01, 1.232595164407831e-32, 1.603586456402254e-01, 3.165640999636298e-01, 4.645707413759609e-01, 6.005453046616810e-01, 7.209661773352294e-01, 8.227146565371428e-01, 9.031559036148179e-01, 9.602081521348300e-01, 9.924068438435844e-01};

 /* 19 point rule weights */
 static double _GL_wt19[19]={
  1.946178822972643e-02, 4.481422676569959e-02, 6.904454273764125e-02, 9.149002162245014e-02, 1.115666455473341e-01, 1.287539625393363e-01, 1.426067021736066e-01, 1.527660420658597e-01, 1.589688433939544e-01, 1.610544498487837e-01, 1.589688433939544e-01, 1.527660420658597e-01, 1.426067021736066e-01, 1.287539625393363e-01, 1.115666455473341e-01, 9.149002162245014e-02, 6.904454273764125e-02, 4.481422676569959e-02, 1.946178822972643e-02};

 /* 20 point rule points */
 static double _GL_pt20[20]={
 -9.931285991850949e-01,-9.639719272779138e-01,-9.122344282513259e-01,-8.391169718222189e-01,-7.463319064601508e-01,-6.360536807265150e-01,-5.108670019508271e-01,-3.737060887154195e-01,-2.277858511416451e-01,-7.652652113349734e-02, 7.652652113349734e-02, 2.277858511416451e-01, 3.737060887154195e-01, 5.108670019508271e-01, 6.360536807265150e-01, 7.463319064601508e-01, 8.391169718222189e-01, 9.122344282513259e-01, 9.639719272779138e-01, 9.931285991850949e-01};

 /* 20 point rule weights */
 static double _GL_wt20[20]={
  1.761400713915226e-02, 4.060142980038705e-02, 6.267204833410904e-02, 8.327674157670474e-02, 1.019301198172405e-01, 1.181945319615183e-01, 1.316886384491766e-01, 1.420961093183819e-01, 1.491729864726038e-01, 1.527533871307260e-01, 1.527533871307260e-01, 1.491729864726038e-01, 1.420961093183819e-01, 1.316886384491766e-01, 1.181945319615183e-01, 1.019301198172405e-01, 8.327674157670474e-02, 6.267204833410904e-02, 4.060142980038705e-02, 1.761400713915226e-02};

 /* 21 point rule points */
 static double _GL_pt21[21]={ 
 -0.9937521706203895 , -0.9672268385663063 , -0.9200993341504008 , -0.8533633645833173 , -0.7684399634756779 , -0.6671388041974123 , -0.5516188358872198 , -0.4243421202074388 , -0.2880213168024011 , -0.1455618541608951 , 0.0 , 0.1455618541608951 , 0.2880213168024011 , 0.4243421202074388 , 0.5516188358872198 , 0.6671388041974123 , 0.7684399634756779 , 0.8533633645833173 , 0.9200993341504008 , 0.9672268385663063 , 0.9937521706203895      
 };

      /* 21 point rule weights */
 static double _GL_wt21[21]={ 
 0.1601722825777433e-1, 0.3695378977085249e-1 , 0.5713442542685721e-1 , 0.761001136283793e-1 , 0.9344442345603386e-1 , 0.1087972991671484 , 0.1218314160537285 , 0.1322689386333375 , 0.1398873947910732 , 0.1445244039899701 , 0.1460811336496904 , 0.1445244039899701 , 0.1398873947910732 , 0.1322689386333375 , 0.1218314160537285 , 0.1087972991671484 , 0.9344442345603386e-1 , 0.761001136283793e-1 , 0.5713442542685721e-1 , 0.3695378977085249e-1 , 0.1601722825777433e-1
 };

   /* 22 point rule points */
   static double _GL_pt22[22]={-0.9942945854823993,  -0.9700604978354287 , -0.926956772187174 , -0.8658125777203001 , -0.7878168059792082 , -0.6944872631866828 , -0.5876404035069116 , -0.469355837986757 , -0.3419358208920842 , -0.2078604266882213 , -0.6973927331972222e-1 , 0.6973927331972222e-1 , 0.2078604266882213 , 0.3419358208920842 , 0.469355837986757 , 0.5876404035069116 , 0.6944872631866828 , 0.7878168059792082 , 0.8658125777203001 , 0.926956772187174 , 0.9700604978354287 , 0.9942945854823993  
 };

   /* 22 point rule weights */
   static double _GL_wt22[22]={
 0.146279952982722e-1 , 0.3377490158481415e-1 , 0.5229333515268329e-1 , 0.6979646842452049e-1 , 0.8594160621706773e-1 , 0.100414144442881 , 0.1129322960805392 , 0.1232523768105124 , 0.1311735047870624 , 0.1365414983460152 , 0.139251872855632 , 0.139251872855632 , 0.1365414983460152 , 0.1311735047870624 , 0.1232523768105124 , 0.1129322960805392 , 0.100414144442881 , 0.8594160621706773e-1 , 0.6979646842452049e-1 , 0.5229333515268329e-1 , 0.3377490158481415e-1 , 0.146279952982722e-1 
 };

   /* 23 point rule points */
   static double _GL_pt23[23]={
 -0.9947693349975521 , -0.9725424712181152 , -0.9329710868260161 , -0.8767523582704417 , -0.8048884016188399 , -0.7186613631319502 , -0.6196098757636462 , -0.5095014778460075 , -0.3903010380302908 , -0.2641356809703449 , -0.1332568242984661 , 0.0 , 0.1332568242984661 , 0.2641356809703449 , 0.3903010380302908 , 0.5095014778460075 , 0.6196098757636462 , 0.7186613631319502 , 0.8048884016188399 , 0.8767523582704417 , 0.9329710868260161 , 0.9725424712181152 , 0.9947693349975521 
 };

   /* 23 point rule weights */
   static double _GL_wt23[23]={
  0.1341185948714177e-1, 0.3098800585697944e-1, 0.4803767173108467e-1, 0.6423242140852585e-1, 0.7928141177671895e-1, 0.9291576606003515e-1, 0.1048920914645414, 0.1149966402224114, 0.1230490843067295, 0.1289057221880821, 0.1324620394046966, 0.1336545721861062, 0.1324620394046966, 0.1289057221880821, 0.1230490843067295, 0.1149966402224114, 0.1048920914645414, 0.9291576606003515e-1, 0.7928141177671895e-1, 0.6423242140852585e-1, 0.4803767173108467e-1, 0.3098800585697944e-1, 0.1341185948714177e-1
 };

   /* 24 point rule points */
   static double _GL_pt24[24]={
  -0.9951872199970214, -0.9747285559713095, -0.9382745520027328, -0.8864155270044010, -0.8200019859739029, -0.7401241915785544, -0.6480936519369756,-0.5454214713888395, -0.4337935076260451,-0.3150426796961634, -0.1911188674736163, -0.6405689286260563e-1, 0.6405689286260563e-1, 0.1911188674736163, 0.3150426796961634, 0.4337935076260451, 0.5454214713888395, 0.6480936519369756, 0.7401241915785544, 0.8200019859739029, 0.886415527004401, 0.9382745520027328, 0.9747285559713095, 0.9951872199970214
 };

   /* 24 point rule weights */
   static double _GL_wt24[24]={
  0.123412297999872e-1,  0.2853138862893366e-1, 0.4427743881741981e-1, 0.5929858491543678e-1, 0.7334648141108031e-1, 0.8619016153195328e-1, 0.9761865210411389e-1, 0.1074442701159656, 0.1155056680537256, 0.1216704729278034, 0.1258374563468283, 0.1279381953467522, 0.1279381953467522, 0.1258374563468283, 0.1216704729278034, 0.1155056680537256, 0.1074442701159656, 0.9761865210411389e-1, 0.8619016153195328e-1, 0.7334648141108031e-1, 0.5929858491543678e-1, 0.4427743881741981e-1, 0.2853138862893366e-1, 0.1234122979998720e-1
 };

   /* 25 point rule points */
   static double _GL_pt25[25]={
  -0.9955569697904981 ,  -0.9766639214595175 ,  -0.9429745712289743 ,  -0.8949919978782754 ,  -0.833442628760834 ,  -0.7592592630373576 ,  -0.6735663684734684 ,  -0.577662930241223 ,  -0.473002731445715 ,  -0.3611723058093878 ,  -0.2438668837209884 ,  -0.1228646926107104 ,  0.0 ,  0.1228646926107104 ,  0.2438668837209884 ,  0.3611723058093878 ,  0.473002731445715 ,  0.577662930241223 ,  0.6735663684734684 ,  0.7592592630373576 ,  0.833442628760834 ,  0.8949919978782754 ,  0.9429745712289743 ,  0.9766639214595175 ,  0.9955569697904981 
 };

   /* 25 point rule weights */
   static double _GL_wt25[25]={
  0.1139379850102629e-1, 0.2635498661503214e-1, 0.4093915670130631e-1, 0.5490469597583519e-1, 0.6803833381235692e-1, 0.8014070033500102e-1, 0.9102826198296365e-1, 0.1005359490670506, 0.1085196244742637, 0.1148582591457116, 0.1194557635357848, 0.12224244299031, 0.1231760537267155, 0.12224244299031, 0.1194557635357848, 0.1148582591457116, 0.1085196244742637, 0.1005359490670506, 0.9102826198296365e-1, 0.8014070033500102e-1, 0.6803833381235692e-1, 0.5490469597583519e-1, 0.4093915670130631e-1, 0.2635498661503214e-1, 0.1139379850102629e-1
 };

   /* 26 point rule points */
   static double _GL_pt26[26]={
  -0.9958857011456169 ,  -0.978385445956471 ,  -0.9471590666617143 ,  -0.9026378619843071 ,  -0.845445942788498 ,  -0.7763859488206789 ,  -0.6964272604199573 ,  -0.6066922930176181 ,  -0.5084407148245057 ,  -0.4030517551234863 ,  -0.2920048394859569 ,  -0.1768588203568902 ,  -0.5923009342931321e-1 ,  0.5923009342931321e-1 ,  0.1768588203568902 ,  0.2920048394859569 ,  0.4030517551234863 ,  0.5084407148245057 ,  0.6066922930176181 ,  0.6964272604199573 ,  0.7763859488206789 ,  0.845445942788498 ,  0.9026378619843071 ,  0.9471590666617143 ,  0.978385445956471 ,  0.9958857011456169 
 };

   /* 26 point rule weights */
   static double _GL_wt26[26]={
  0.1055137261734301e-1 ,  0.2441785109263191e-1 ,  0.3796238329436276e-1 ,  0.5097582529714781e-1 ,  0.6327404632957484e-1 ,  0.7468414976565975e-1 ,  0.8504589431348524e-1 ,  0.9421380035591415e-1 ,  0.1020591610944254 ,  0.1084718405285766 ,  0.1133618165463197 ,  0.1166604434852966 ,  0.1183214152792623 ,  0.1183214152792623 ,  0.1166604434852966 ,  0.1133618165463197 ,  0.1084718405285766 ,  0.1020591610944254 ,  0.9421380035591415e-1 ,  0.8504589431348524e-1 ,  0.7468414976565975e-1 ,  0.6327404632957484e-1 ,  0.5097582529714781e-1 ,  0.3796238329436276e-1 ,  0.2441785109263191e-1 ,  0.1055137261734301e-1 
 };

   /* 27 point rule points */
   static double _GL_pt27[27]={
  -0.9961792628889886 ,  -0.9799234759615012 ,  -0.950900557814705 ,  -0.9094823206774911 ,  -0.8562079080182945 ,  -0.7917716390705082 ,  -0.7170134737394237 ,  -0.6329079719464951 ,  -0.5405515645794569 ,  -0.4411482517500269 ,  -0.3359939036385089 ,  -0.2264593654395369 ,  -0.11397258560953 ,  0.0 ,  0.11397258560953 ,  0.2264593654395369 ,  0.3359939036385089 ,  0.4411482517500269 ,  0.5405515645794569 ,  0.6329079719464951 ,  0.7170134737394237 ,  0.7917716390705082 ,  0.8562079080182945 ,  0.9094823206774911 ,  0.950900557814705 ,  0.9799234759615012 ,  0.9961792628889886 
 };

   /* 27 point rule weights */
   static double _GL_wt27[27]={
  0.979899605129436e-2 ,  0.2268623159618062e-1 ,  0.3529705375741971e-1 ,  0.4744941252061506e-1 ,  0.589835368598336e-1 ,  0.6974882376624559e-1 ,  0.7960486777305777e-1 ,  0.8842315854375695e-1 ,  0.9608872737002851e-1 ,  0.1025016378177458 ,  0.1075782857885332 ,  0.1112524883568452 ,  0.1134763461089651 ,  0.114220867378957 ,  0.1134763461089651 ,  0.1112524883568452 ,  0.1075782857885332 ,  0.1025016378177458 ,  0.9608872737002851e-1 , 0.8842315854375695e-1 ,  0.7960486777305777e-1 ,  0.6974882376624559e-1 ,  0.589835368598336e-1 ,  0.4744941252061506e-1 ,  0.3529705375741971e-1 ,  0.2268623159618062e-1 ,  0.979899605129436e-2 
 };

   /* 28 point rule points */
   static double _GL_pt28[28]={
  -0.9964424975739544 ,  -0.9813031653708728 ,  -0.9542592806289382 ,  -0.9156330263921321 ,  -0.865892522574395 ,  -0.8056413709171792 ,  -0.7356108780136318 ,  -0.656651094038865 ,  -0.5697204718114017 ,  -0.4758742249551183 ,  -0.3762515160890787 ,  -0.2720616276351781 ,  -0.1645692821333808 ,  -0.5507928988403427e-1 ,  0.5507928988403427e-1 ,  0.1645692821333808 ,  0.2720616276351781 ,  0.3762515160890787 ,  0.4758742249551183 ,  0.5697204718114017 ,  0.656651094038865 ,  0.7356108780136318 ,  0.8056413709171792 ,  0.865892522574395 ,  0.9156330263921321 ,  0.9542592806289382 ,  0.9813031653708728 ,  0.9964424975739544 
 };

   /* 28 point rule weights */
   static double _GL_wt28[28]={
  0.9124282593094518e-2 ,  0.2113211259277126e-1 ,  0.3290142778230438e-1 ,  0.4427293475900423e-1 ,  0.5510734567571675e-1 ,  0.652729239669996e-1 ,  0.7464621423456878e-1 ,  0.8311341722890122e-1 ,  0.9057174439303284e-1 ,  0.9693065799792992e-1 ,  0.1021129675780608 ,  0.1060557659228464 ,  0.1087111922582941 ,  0.1100470130164752 ,  0.1100470130164752 ,  0.1087111922582941 ,  0.1060557659228464 ,  0.1021129675780608 ,  0.9693065799792992e-1 ,  0.9057174439303284e-1 ,  0.8311341722890122e-1 ,  0.7464621423456878e-1 ,  0.652729239669996e-1 ,  0.5510734567571675e-1 ,  0.4427293475900423e-1 ,  0.3290142778230438e-1 ,  0.2113211259277126e-1 ,  0.9124282593094518e-2 
 };

   /* 29 point rule points */
   static double _GL_pt29[29]={
  -0.9966794422605966 ,  -0.9825455052614132 ,  -0.9572855957780877 ,  -0.9211802329530588 ,  -0.8746378049201028 ,  -0.8181854876152524 ,  -0.7524628517344771 ,  -0.6782145376026865 ,  -0.5962817971382278 ,  -0.5075929551242276 ,  -0.4131528881740087 ,  -0.3140316378676399 ,  -0.2113522861660011 ,  -0.1062782301326792 ,  0.0 ,  0.1062782301326792 ,  0.2113522861660011 ,  0.3140316378676399 ,  0.4131528881740087 ,  0.5075929551242276 ,  0.5962817971382278 ,  0.6782145376026865 ,  0.7524628517344771 ,  0.8181854876152524 ,  0.8746378049201028 ,  0.9211802329530588 ,  0.9572855957780877 ,  0.9825455052614132 ,  0.9966794422605966 
 };

   /* 29 point rule weights */
   static double _GL_wt29[29]={
  0.851690387874641e-2 ,  0.1973208505612271e-1 ,  0.3074049220209362e-1 ,  0.4140206251868284e-1 ,  0.5159482690249792e-1 ,  0.6120309065707914e-1 ,  0.7011793325505128e-1 ,  0.7823832713576378e-1 ,  0.8547225736617253e-1 ,  0.9173775713925876e-1 ,  0.9696383409440861e-1 ,  0.101091273759915 ,  0.1040733100777294 ,  0.1058761550973209 ,  0.1064793817183142 ,  0.1058761550973209 ,  0.1040733100777294 ,  0.101091273759915 ,  0.9696383409440861e-1 ,  0.9173775713925876e-1 ,  0.8547225736617253e-1 ,  0.7823832713576378e-1 ,  0.7011793325505128e-1 ,  0.6120309065707914e-1 ,  0.5159482690249792e-1 ,  0.4140206251868284e-1 ,  0.3074049220209362e-1 ,  0.1973208505612271e-1 ,  0.851690387874641e-2
 };

   /* 30 point rule points */
   static double _GL_pt30[30]={
  -0.9968934840746495 ,  -0.9836681232797472 ,  -0.9600218649683075 ,  -0.9262000474292743 ,  -0.8825605357920527 ,  -0.8295657623827684 ,  -0.7677774321048262 ,  -0.6978504947933158 ,  -0.6205261829892429 ,  -0.5366241481420199 ,  -0.4470337695380892 ,  -0.3527047255308781 ,  -0.2546369261678898 ,  -0.1538699136085835 ,  -0.514718425553177e-1 ,  0.514718425553177e-1 ,  0.1538699136085835 ,  0.2546369261678898 ,  0.3527047255308781 ,  0.4470337695380892 ,  0.5366241481420199 ,  0.6205261829892429 ,  0.6978504947933158 ,  0.7677774321048262 ,  0.8295657623827684 ,  0.8825605357920527 ,  0.9262000474292743 ,  0.9600218649683075 ,  0.9836681232797472 ,  0.9968934840746495
 };

   /* 30 point rule weights */
   static double _GL_wt30[30]={ 
 0.7968192496166606e-2 ,  0.1846646831109096e-1 ,  0.2878470788332337e-1 ,  0.3879919256962705e-1 ,  0.4840267283059405e-1 ,  0.5749315621761907e-1 ,  0.659742298821805e-1 ,  0.7375597473770521e-1 ,  0.8075589522942022e-1 ,  0.8689978720108298e-1 ,  0.9212252223778613e-1 ,  0.9636873717464426e-1 ,  0.9959342058679527e-1 ,  0.1017623897484055 ,  0.1028526528935588 ,  0.1028526528935588 ,  0.1017623897484055 ,  0.9959342058679527e-1 ,  0.9636873717464426e-1 ,  0.9212252223778613e-1 ,  0.8689978720108298e-1 ,  0.8075589522942022e-1 ,  0.7375597473770521e-1 ,  0.659742298821805e-1 ,  0.5749315621761907e-1 ,  0.4840267283059405e-1 ,  0.3879919256962705e-1 ,  0.2878470788332337e-1 ,  0.1846646831109096e-1 ,  0.7968192496166606e-2
 };

   /* 31 point rule points */
   static double _GL_pt31[31]={
  -0.9970874818194771 ,  -0.9846859096651525 ,  -0.9625039250929497 ,  -0.9307569978966482 ,  -0.889760029948271 ,  -0.8399203201462673 ,  -0.7817331484166249 ,  -0.7157767845868533 ,  -0.6427067229242603 ,  -0.5632491614071493 ,  -0.4781937820449025 ,  -0.3883859016082329 ,  -0.2947180699817016 ,  -0.1981211993355706 ,  -0.9955531215234152e-1 ,  0.0 ,  0.9955531215234152e-1 ,  0.1981211993355706 ,  0.2947180699817016 ,  0.3883859016082329 ,  0.4781937820449025 ,  0.5632491614071493 ,  0.6427067229242603 ,  0.7157767845868533 ,  0.7817331484166249 ,  0.8399203201462673 ,  0.889760029948271 ,  0.9307569978966482 ,  0.9625039250929497 ,  0.9846859096651525 ,  0.9970874818194771 
 };

   /* 31 point rule weights */
   static double _GL_wt31[31]={
  0.7470831579248776e-2 ,  0.1731862079031058e-1 ,  0.2700901918497942e-1 ,  0.3643227391238546e-1 ,  0.454937075272011e-1 ,  0.5410308242491685e-1 ,  0.6217478656102843e-1 ,  0.6962858323541037e-1 ,  0.7639038659877662e-1 ,  0.8239299176158926e-1 ,  0.8757674060847788e-1 ,  0.9189011389364148e-1 ,  0.9529024291231951e-1 ,  0.9774333538632873e-1 ,  0.9922501122667231e-1 ,  0.9972054479342645e-1 ,  0.9922501122667231e-1 ,  0.9774333538632873e-1 ,  0.9529024291231951e-1 ,  0.9189011389364148e-1 ,  0.8757674060847788e-1 ,  0.8239299176158926e-1 ,  0.7639038659877662e-1 ,  0.6962858323541037e-1 ,  0.6217478656102843e-1 ,  0.5410308242491685e-1 ,  0.454937075272011e-1 ,  0.3643227391238546e-1 ,  0.2700901918497942e-1 ,  0.1731862079031058e-1 ,  0.7470831579248776e-2 
 };

   /* 32 point rule points */
   static double _GL_pt32[32]={
  -0.9972638618494816 ,  -0.9856115115452683 ,  -0.9647622555875064 ,  -0.9349060759377397 ,  -0.8963211557660521 ,  -0.84936761373257 ,  -0.7944837959679424 ,  -0.7321821187402897 ,  -0.6630442669302152 ,  -0.5877157572407623 ,  -0.5068999089322294 ,  -0.4213512761306353 ,  -0.3318686022821276 ,  -0.2392873622521371 ,  -0.1444719615827965 ,  -0.4830766568773832e-1 ,  0.4830766568773832e-1 ,  0.1444719615827965 ,  0.2392873622521371 ,  0.3318686022821276 ,  0.4213512761306353 ,  0.5068999089322294 ,  0.5877157572407623 ,  0.6630442669302152 ,  0.7321821187402897 ,  0.7944837959679424 ,  0.84936761373257 ,  0.8963211557660521 ,  0.9349060759377397 ,  0.9647622555875064 ,  0.9856115115452683 ,  0.9972638618494816 
 };

   /* 32 point rule weights */
   static double _GL_wt32[32]={ 
 0.7018610009470097e-2 ,  0.1627439473090567e-1 ,  0.2539206530926206e-1 ,  0.3427386291302143e-1 ,  0.4283589802222668e-1 ,  0.5099805926237618e-1 ,  0.5868409347853555e-1 ,  0.6582222277636185e-1 ,  0.7234579410884851e-1 ,  0.7819389578707031e-1 ,  0.8331192422694676e-1 ,  0.8765209300440381e-1 ,  0.9117387869576388e-1 ,  0.9384439908080457e-1 ,  0.9563872007927486e-1 ,  0.965400885147278e-1 ,  0.965400885147278e-1 ,  0.9563872007927486e-1 ,  0.9384439908080457e-1 ,  0.9117387869576388e-1 ,  0.8765209300440381e-1 ,  0.8331192422694676e-1 ,  0.7819389578707031e-1 ,  0.7234579410884851e-1 ,  0.6582222277636185e-1 ,  0.5868409347853555e-1 ,  0.5099805926237618e-1 ,  0.4283589802222668e-1 ,  0.3427386291302143e-1 ,  0.2539206530926206e-1 ,  0.1627439473090567e-1 ,  0.7018610009470097e-2
 };

   /* 33 point rule points */
   static double _GL_pt33[33]={
  -0.9974246942464552 ,  -0.9864557262306425 ,  -0.9668229096899928 ,  -0.9386943726111684 ,  -0.9023167677434336 ,  -0.8580096526765041 ,  -0.8061623562741666 ,  -0.7472304964495622 ,  -0.6817319599697428 ,  -0.610242345836379 ,  -0.5333899047863476 ,  -0.4518500172724507 ,  -0.3663392577480733 ,  -0.277609097152497 ,  -0.1864392988279916 ,  -0.9363106585473339e-1 ,  0.0 ,  0.9363106585473339e-1 ,  0.1864392988279916 ,  0.277609097152497 ,  0.3663392577480733 ,  0.4518500172724507 ,  0.5333899047863476 ,  0.610242345836379 ,  0.6817319599697428 ,  0.7472304964495622 ,  0.8061623562741666 ,  0.8580096526765041 ,  0.9023167677434336 ,  0.9386943726111684 ,  0.9668229096899928 ,  0.9864557262306425 ,  0.9974246942464552
 };

   /* 33 point rule weights */
   static double _GL_wt33[33]={
  0.6606227847587378e-2 ,  0.1532170151293468e-1 ,  0.2391554810174948e-1 ,  0.3230035863232895e-1 ,  0.4040154133166959e-1 ,  0.481477428187117e-1 ,  0.5547084663166356e-1 ,  0.6230648253031748e-1 ,  0.6859457281865671e-1 ,  0.7427985484395415e-1 ,  0.7931236479488674e-1 ,  0.8364787606703871e-1 ,  0.8724828761884434e-1 ,  0.9008195866063858e-1 ,  0.9212398664331685e-1 ,  0.9335642606559612e-1 ,  0.9376844616021e-1 ,  0.9335642606559612e-1 ,  0.9212398664331685e-1 ,  0.9008195866063858e-1 ,  0.8724828761884434e-1 ,  0.8364787606703871e-1 ,  0.7931236479488674e-1 ,  0.7427985484395415e-1 ,  0.6859457281865671e-1 ,  0.6230648253031748e-1 ,  0.5547084663166356e-1 ,  0.481477428187117e-1 ,  0.4040154133166959e-1 ,  0.3230035863232895e-1 ,  0.2391554810174948e-1 ,  0.1532170151293468e-1 ,  0.6606227847587378e-2
 };

   /* 34 point rule points */
   static double _GL_pt34[34]={
  -0.9975717537908419 ,  -0.9872278164063095 ,  -0.9687082625333443 ,  -0.9421623974051071 ,  -0.9078096777183245 ,  -0.8659346383345645 ,  -0.8168842279009337 ,  -0.761064876629873 ,  -0.6989391132162629 ,  -0.6310217270805285 ,  -0.5578755006697466 ,  -0.480106545190327 ,  -0.3983592777586459 ,  -0.3133110813394632 ,  -0.2256666916164495 ,  -0.136152357259183 ,  -0.4550982195310254e-1 ,  0.4550982195310254e-1 ,  0.136152357259183 ,  0.2256666916164495 ,  0.3133110813394632 ,  0.3983592777586459 ,  0.480106545190327 ,  0.5578755006697466 ,  0.6310217270805285 ,  0.6989391132162629 ,  0.761064876629873 ,  0.8168842279009337 ,  0.8659346383345645 ,  0.9078096777183245 ,  0.9421623974051071 ,  0.9687082625333443 ,  0.9872278164063095 ,  0.9975717537908419
 };

   /* 34 point rule weights */
   static double _GL_wt34[34]={
  0.6229140555908685e-2 ,  0.1445016274859504e-1 ,  0.2256372198549497e-1 ,  0.3049138063844613e-1 ,  0.3816659379638752e-1 ,  0.4552561152335327e-1 ,  0.5250741457267811e-1 ,  0.5905413582752449e-1 ,  0.6511152155407641e-1 ,  0.7062937581425572e-1 ,  0.7556197466003193e-1 ,  0.7986844433977184e-1 ,  0.8351309969984566e-1 ,  0.8646573974703575e-1 ,  0.8870189783569387e-1 ,  0.9020304437064073e-1 ,  0.9095674033025987e-1 ,  0.9095674033025987e-1 ,  0.9020304437064073e-1 ,  0.8870189783569387e-1 ,  0.8646573974703575e-1 ,  0.8351309969984566e-1 ,  0.7986844433977184e-1 ,  0.7556197466003193e-1 ,  0.7062937581425572e-1 ,  0.6511152155407641e-1 ,  0.5905413582752449e-1 ,  0.5250741457267811e-1 ,  0.4552561152335327e-1 ,  0.3816659379638752e-1 ,  0.3049138063844613e-1 ,  0.2256372198549497e-1 ,  0.1445016274859504e-1 ,  0.6229140555908685e-2 
 };

   /* 35 point rule points */
   static double _GL_pt35[35]={
  -0.9977065690996003 ,  -0.9879357644438515 ,  -0.9704376160392298 ,  -0.9453451482078273 ,  -0.9128542613593176 ,  -0.8732191250252223 ,  -0.8267498990922254 ,  -0.7738102522869126 ,  -0.7148145015566288 ,  -0.6502243646658904 ,  -0.5805453447497645 ,  -0.5063227732414886 ,  -0.4281375415178143 ,  -0.3466015544308139 ,  -0.2623529412092961 ,  -0.1760510611659896 ,  -0.8837134327565926e-1 ,  0.0 ,  0.8837134327565926e-1 ,  0.1760510611659896 ,  0.2623529412092961 , 0.3466015544308139 ,  0.4281375415178143 ,  0.5063227732414886 ,  0.5805453447497645 ,  0.6502243646658904 ,  0.7148145015566288 ,  0.7738102522869126 ,  0.8267498990922254 ,  0.8732191250252223 ,  0.9128542613593176 ,  0.9453451482078273 ,  0.9704376160392298 ,  0.9879357644438515 ,  0.9977065690996003 
 };

   /* 35 point rule weights */
   static double _GL_wt35[35]={
  0.5883433420443085e-2 ,  0.1365082834836149e-1 ,  0.2132297991148358e-1 ,  0.2882926010889425e-1 ,  0.3611011586346338e-1 ,  0.4310842232617022e-1 ,  0.4976937040135353e-1 ,  0.5604081621237013e-1 ,  0.6187367196608019e-1 ,  0.672222852690869e-1 ,  0.7204479477256006e-1 ,  0.7630345715544205e-1 ,  0.7996494224232426e-1 ,  0.8300059372885659e-1 ,  0.8538665339209913e-1 ,  0.8710444699718353e-1 ,  0.8814053043027546e-1 ,  0.8848679490710429e-1 ,  0.8814053043027546e-1 ,  0.8710444699718353e-1 ,  0.8538665339209913e-1 ,  0.8300059372885659e-1 ,  0.7996494224232426e-1 ,  0.7630345715544205e-1 ,  0.7204479477256006e-1 ,  0.672222852690869e-1 ,  0.6187367196608019e-1 ,  0.5604081621237013e-1 ,  0.4976937040135353e-1 ,  0.4310842232617022e-1 ,  0.3611011586346338e-1 ,  0.2882926010889425e-1 ,  0.2132297991148358e-1 ,  0.1365082834836149e-1 ,  0.5883433420443085e-2 
 };

   /* 36 point rule points */
   static double _GL_pt36[36]={
  -0.9978304624840858 ,  -0.9885864789022122 ,  -0.9720276910496979 ,  -0.9482729843995075 ,  -0.9174977745156591 ,  -0.8799298008903971 ,  -0.8358471669924753 ,  -0.7855762301322065 ,  -0.7294891715935566 ,  -0.6680012365855211 ,  -0.6015676581359805 ,  -0.5306802859262452 ,  -0.4558639444334203 ,  -0.3776725471196892 ,  -0.2966849953440283 ,  -0.2135008923168656 ,  -0.1287361038093848 ,  -0.4301819847370861e-1 ,  0.4301819847370861e-1 ,  0.1287361038093848 ,  0.2135008923168656 ,  0.2966849953440283 ,  0.3776725471196892 ,  0.4558639444334203 ,  0.5306802859262452 ,  0.6015676581359805 ,  0.6680012365855211 ,  0.7294891715935566 ,  0.7855762301322065 ,  0.8358471669924753 ,  0.8799298008903971 ,  0.9174977745156591 ,  0.9482729843995075 ,  0.9720276910496979 ,  0.9885864789022122 ,  0.9978304624840858 
 };

   /* 36 point rule weights */
   static double _GL_wt36[36]={
  0.5565719664245045e-2 ,  0.1291594728406557e-1 ,  0.2018151529773547e-1 ,  0.2729862149856878e-1 ,  0.3421381077030723e-1 ,  0.408757509236449e-1 ,  0.4723508349026598e-1 ,  0.5324471397775992e-1 ,  0.5886014424532482e-1 ,  0.6403979735501549e-1 ,  0.6874532383573644e-1 ,  0.7294188500565306e-1 ,  0.7659841064587067e-1 ,  0.796878289120716e-1 ,  0.8218726670433971e-1 ,  0.8407821897966193e-1 ,  0.8534668573933863e-1 ,  0.8598327567039475e-1 ,  0.8598327567039475e-1 ,  0.8534668573933863e-1 ,  0.8407821897966193e-1 ,  0.8218726670433971e-1 ,  0.796878289120716e-1 ,  0.7659841064587067e-1 ,  0.7294188500565306e-1 ,  0.6874532383573644e-1 ,  0.6403979735501549e-1 ,  0.5886014424532482e-1 ,  0.5324471397775992e-1 ,  0.4723508349026598e-1 ,  0.408757509236449e-1 ,  0.3421381077030723e-1 ,  0.2729862149856878e-1 ,  0.2018151529773547e-1 ,  0.1291594728406557e-1 ,  0.5565719664245045e-2
 };

   /* 37 point rule points */
   static double _GL_pt37[37]={
  -0.9979445824779136 ,  -0.9891859632143192 ,  -0.9734930300564857 ,  -0.9509723432620948 ,  -0.9217814374124637 ,  -0.8861249621554861 ,  -0.844252987340556 ,  -0.7964592005099023 ,  -0.7430788339819653 ,  -0.6844863091309594 ,  -0.6210926084089245 ,  -0.5533423918615818 ,  -0.4817108778032056 ,  -0.4067005093183261 ,  -0.328837429883707 ,  -0.2486677927913658 ,  -0.166753930239852 ,  -0.836704089547699e-1 ,  0.0 ,  0.836704089547699e-1 ,  0.166753930239852 ,  0.2486677927913658 ,  0.328837429883707 ,  0.4067005093183261 ,  0.4817108778032056 ,  0.5533423918615818 ,  0.6210926084089245 ,  0.6844863091309594 ,  0.7430788339819653 ,  0.7964592005099023 ,  0.844252987340556 ,  0.8861249621554861 ,  0.9217814374124637 ,  0.9509723432620948 ,  0.9734930300564857 ,  0.9891859632143192 ,  0.9979445824779136
 };

   /* 37 point rule weights */
   static double _GL_wt37[37]={
  0.5273057279497939e-2,  0.1223878010030756e-1,  0.1912904448908397e-1,  0.2588603699055893e-1,  0.3246163984752148e-1,  0.3880960250193454e-1,  0.4488536466243717e-1,  0.506462976548246e-1,  0.5605198799827492e-1,  0.6106451652322599e-1,  0.6564872287275125e-1,  0.6977245155570034e-1,  0.7340677724848817e-1,  0.7652620757052924e-1,  0.7910886183752938e-1,  0.8113662450846503e-1,  0.8259527223643725e-1,  0.8347457362586279e-1,  0.837683609931389e-1,  0.8347457362586279e-1,  0.8259527223643725e-1,  0.8113662450846503e-1,  0.7910886183752938e-1,  0.7652620757052924e-1,  0.7340677724848817e-1,  0.6977245155570034e-1,  0.6564872287275125e-1,  0.6106451652322599e-1,  0.5605198799827492e-1,  0.506462976548246e-1,  0.4488536466243717e-1,  0.3880960250193454e-1,  0.3246163984752148e-1,  0.2588603699055893e-1,  0.1912904448908397e-1,  0.1223878010030756e-1,  0.5273057279497939e-2
 };

   /* 38 point rule points */
   static double _GL_pt38[38]={
  -0.9980499305356876 ,  -0.9897394542663856 ,  -0.9748463285901535 ,  -0.9534663309335296 ,  -0.9257413320485844 ,  -0.8918557390046322 ,  -0.8520350219323622 ,  -0.8065441676053168 ,  -0.7556859037539707 ,  -0.6997986803791844 ,  -0.6392544158296817 ,  -0.5744560210478071 ,  -0.5058347179279311 ,  -0.4338471694323765 ,  -0.358972440479435 ,  -0.2817088097901653 ,  -0.2025704538921167 ,  -0.1220840253378674 ,  -0.4078514790457824e-1 ,  0.4078514790457824e-1 ,  0.1220840253378674 ,  0.2025704538921167 ,  0.2817088097901653 ,  0.358972440479435 ,  0.4338471694323765 ,  0.5058347179279311 ,  0.5744560210478071 ,  0.6392544158296817 ,  0.6997986803791844 ,  0.7556859037539707 ,  0.8065441676053168 ,  0.8520350219323622 ,  0.8918557390046322 ,  0.9257413320485844 ,  0.9534663309335296 ,  0.9748463285901535 ,  0.9897394542663856 ,  0.9980499305356876 
 };

   /* 38 point rule weights */
   static double _GL_wt38[38]={
  0.5002880749639346e-2 ,  0.1161344471646867e-1 ,  0.1815657770961324e-1 ,  0.2457973973823238e-1 ,  0.3083950054517505e-1 ,  0.3689408159402474e-1 ,  0.4270315850467443e-1 ,  0.4822806186075868e-1 ,  0.5343201991033232e-1 ,  0.5828039914699721e-1 ,  0.6274093339213305e-1 ,  0.6678393797914041e-1 ,  0.7038250706689895e-1 ,  0.7351269258474346e-1 ,  0.761536635484464e-1 ,  0.7828784465821095e-1 ,  0.7990103324352782e-1 ,  0.809824937705971e-1 ,  0.8152502928038579e-1 ,  0.8152502928038579e-1 ,  0.809824937705971e-1 ,  0.7990103324352782e-1 ,  0.7828784465821095e-1 ,  0.761536635484464e-1 ,  0.7351269258474346e-1 ,  0.7038250706689895e-1 ,  0.6678393797914041e-1 ,  0.6274093339213305e-1 ,  0.5828039914699721e-1 ,  0.5343201991033232e-1 ,  0.4822806186075868e-1 ,  0.4270315850467443e-1 ,  0.3689408159402474e-1 ,  0.3083950054517505e-1 ,  0.2457973973823238e-1 ,  0.1815657770961324e-1 ,  0.1161344471646867e-1 ,  0.5002880749639346e-2
 };

   /* 39 point rule points */
   static double _GL_pt39[39]={
  -0.9981473830664329 ,  -0.990251536854686 ,  -0.9760987093334711 ,  -0.9557752123246523 ,  -0.9294091484867382 ,  -0.8971671192929929 ,  -0.8592529379999062 ,  -0.8159062974301431 ,  -0.7674012429310635 ,  -0.7140444358945347 ,  -0.6561732134320109 ,  -0.594153454957278 ,  -0.5283772686604375 ,  -0.459260512309136 ,  -0.3872401639715615 ,  -0.3127715592481859 ,  -0.2363255124618358 ,  -0.1583853399978378 ,  -0.7944380460875548e-1 ,  0.0 ,  0.7944380460875548e-1 ,  0.1583853399978378 ,  0.2363255124618358 ,  0.3127715592481859 ,  0.3872401639715615 ,  0.459260512309136 ,  0.5283772686604375 ,  0.594153454957278 ,  0.6561732134320109 ,  0.7140444358945347 ,  0.7674012429310635 ,  0.8159062974301431 ,  0.8592529379999062 ,  0.8971671192929929 ,  0.9294091484867382 ,  0.9557752123246523 ,  0.9760987093334711 ,  0.990251536854686  ,  0.9981473830664329

 };

   /* 39 point rule weights */
   static double _GL_wt39[39]={
  0.4752944691635101e-2 ,  0.1103478893916459e-1 ,  0.1725622909372492e-1 ,  0.2336938483217816e-1 ,  0.2933495598390338e-1 ,  0.3511511149813133e-1 ,  0.4067327684793384e-1 ,  0.4597430110891663e-1 ,  0.5098466529212941e-1 ,  0.556726903409163e-1 ,  0.6000873608859615e-1 ,  0.6396538813868239e-1 ,  0.6751763096623127e-1 ,  0.7064300597060876e-1 ,  0.7332175341426862e-1 ,  0.7553693732283606e-1 ,  0.7727455254468202e-1 ,  0.7852361328737118e-1 ,  0.7927622256836847e-1 ,  0.7952762213944285e-1 ,  0.7927622256836847e-1 ,  0.7852361328737118e-1 ,  0.7727455254468202e-1 ,  0.7553693732283606e-1 ,  0.7332175341426862e-1 ,  0.7064300597060876e-1 ,  0.6751763096623127e-1 ,  0.6396538813868239e-1 ,  0.6000873608859615e-1 ,  0.556726903409163e-1 ,  0.5098466529212941e-1 ,  0.4597430110891663e-1 ,  0.4067327684793384e-1 ,  0.3511511149813133e-1 ,  0.2933495598390338e-1 ,  0.2336938483217816e-1 ,  0.1725622909372492e-1 ,  0.1103478893916459e-1 ,  0.4752944691635101e-2
 };

 /* 40 point rule points */
 static double _GL_pt40[40]={
  -0.9982377097105592 ,  -0.990726238699457 ,  -0.9772599499837743 ,  -0.9579168192137917 ,  -0.9328128082786765 ,  -0.9020988069688743 ,  -0.8659595032122595 ,  -0.8246122308333117 ,  -0.7783056514265194 ,  -0.7273182551899271 ,  -0.6719566846141795 ,  -0.6125538896679802 ,  -0.5494671250951282 ,  -0.4830758016861787 ,  -0.413779204371605 ,  -0.3419940908257585 ,  -0.2681521850072537 ,  -0.1926975807013711 ,  -0.1160840706752552 ,  -0.3877241750605082e-1 ,  0.3877241750605082e-1 ,  0.1160840706752552 ,  0.1926975807013711 ,  0.2681521850072537 ,  0.3419940908257585 ,  0.413779204371605 ,  0.4830758016861787 ,  0.5494671250951282 ,  0.6125538896679802 ,  0.6719566846141795 ,  0.7273182551899271 , 0.7783056514265194 ,  0.8246122308333117 ,  0.8659595032122595 ,  0.9020988069688743 ,  0.9328128082786765 ,  0.9579168192137917 ,  0.9772599499837743 ,  0.990726238699457 ,  0.9982377097105592
 };

 /* 40 point rule weights */
 static double _GL_wt40[40]={
  0.4521277098533191e-2 ,  0.1049828453115281e-1 ,  0.1642105838190789e-1 ,  0.2224584919416696e-1 ,  0.279370069800234e-1 ,  0.3346019528254785e-1 ,  0.3878216797447202e-1 ,  0.4387090818567327e-1 ,  0.4869580763507223e-1 ,  0.5322784698393682e-1 ,  0.5743976909939155e-1 ,  0.6130624249292894e-1 ,  0.6480401345660104e-1 ,  0.679120458152339e-1 ,  0.7061164739128678e-1 ,  0.7288658239580406e-1 ,  0.7472316905796826e-1 ,  0.7611036190062624e-1 ,  0.7703981816424797e-1 ,  0.7750594797842481e-1 ,  0.7750594797842481e-1 ,  0.7703981816424797e-1 ,  0.7611036190062624e-1 ,  0.7472316905796826e-1 ,  0.7288658239580406e-1 ,  0.7061164739128678e-1 ,  0.679120458152339e-1 ,  0.6480401345660104e-1 ,  0.6130624249292894e-1 ,  0.5743976909939155e-1 ,  0.5322784698393682e-1 ,  0.4869580763507223e-1 ,  0.4387090818567327e-1 ,  0.3878216797447202e-1 ,  0.3346019528254785e-1 ,  0.279370069800234e-1 ,  0.2224584919416696e-1 ,  0.1642105838190789e-1 ,  0.1049828453115281e-1 ,  0.4521277098533191e-2
 };


 /* 41 point rule points */
 static double _GL_pt41[41]={
 -0.9983215885747714 ,  -0.9911671096990163 ,  -0.9783386735610834 ,  -0.9599068917303462 ,  -0.9359769874978538 ,  -0.9066859447581012 ,  -0.8722015116924414 ,  -0.8327212004013613 ,  -0.7884711450474094 ,  -0.7397048030699262 ,  -0.6867015020349513 ,  -0.6297648390721963 ,  -0.5692209416102159 ,  -0.505416599199406 ,  -0.4387172770514071 ,  -0.3695050226404814 ,  -0.2981762773418249 ,  -0.2251396056334228 ,  -0.1508133548639922 ,  -0.75623258989163e-1 ,  0.0 ,  0.75623258989163e-1 ,  0.1508133548639922 ,  0.2251396056334228 ,  0.2981762773418249 ,  0.3695050226404814 ,  0.4387172770514071 ,  0.505416599199406 ,  0.5692209416102159 ,  0.6297648390721963 ,  0.6867015020349513 ,  0.7397048030699262 ,  0.7884711450474094 ,  0.8327212004013613 ,  0.8722015116924414 ,  0.9066859447581012 ,  0.9359769874978538 ,  0.9599068917303462 ,  0.9783386735610834 ,  0.9911671096990163 ,  0.9983215885747714 
};

/* 41 point rule weights */
static double _GL_wt41[41]={
 0.4306140358164888e-2 ,  0.9999938773905945e-2 ,  0.1564493840781859e-1 ,  0.2120106336877955e-1 ,  0.2663589920711045e-1 ,  0.3191821173169928e-1 ,  0.3701771670350799e-1 ,  0.4190519519590969e-1 ,  0.4655264836901434e-1 ,  0.5093345429461749e-1 ,  0.5502251924257874e-1 ,  0.5879642094987194e-1 ,  0.6223354258096632e-1 ,  0.6531419645352741e-1 ,  0.6802073676087677e-1 ,  0.703376606208175e-1 ,  0.7225169686102307e-1 ,  0.7375188202722347e-1 ,  0.7482962317622155e-1 ,  0.7547874709271582e-1 ,  0.7569553564729837e-1 ,  0.7547874709271582e-1 ,  0.7482962317622155e-1 ,  0.7375188202722347e-1 ,  0.7225169686102307e-1 ,  0.703376606208175e-1 ,  0.6802073676087677e-1 ,  0.6531419645352741e-1 ,  0.6223354258096632e-1 ,  0.5879642094987194e-1 ,  0.5502251924257874e-1 ,  0.5093345429461749e-1 ,  0.4655264836901434e-1 ,  0.4190519519590969e-1 ,  0.3701771670350799e-1 ,  0.3191821173169928e-1 ,  0.2663589920711045e-1 ,  0.2120106336877955e-1 ,  0.1564493840781859e-1 ,  0.9999938773905945e-2 ,  0.4306140358164888e-2
};

/* 42 point rule points */
static double _GL_pt42[42]={
 -0.9983996189900624 ,  -0.9915772883408609 ,  -0.9793425080637482 ,  -0.9617593653382045 ,  -0.9389235573549882 , -0.9109597249041275 ,  -0.8780205698121727 ,  -0.8402859832618169 ,  -0.7979620532554874 ,  -0.7512799356894805 ,  -0.7004945905561712 ,  -0.6458833888692478 ,  -0.5877445974851093 ,  -0.5263957499311923 ,  -0.4621719120704219 ,  -0.3954238520429751 ,  -0.3265161244654115 ,  -0.2558250793428791 ,  -0.1837368065648546 ,  -0.1106450272085199 ,  -0.3694894316535178e-1 ,  0.3694894316535178e-1 ,  0.1106450272085199 ,  0.1837368065648546 ,  0.2558250793428791 ,  0.3265161244654115 ,  0.3954238520429751 ,  0.4621719120704219 ,  0.5263957499311923 ,  0.5877445974851093 ,  0.6458833888692478 ,  0.7004945905561712 ,  0.7512799356894805 ,  0.7979620532554874 ,  0.8402859832618169 ,  0.8780205698121727 ,  0.9109597249041275 ,  0.9389235573549882 ,  0.9617593653382045 ,  0.9793425080637482 ,  0.9915772883408609 ,  0.9983996189900624 
};

/* 42 point rule weights */
static double _GL_wt42[42]={
 0.4105998604649085e-2 ,  0.9536220301748502e-2 ,  0.1492244369735749e-1 ,  0.2022786956905264e-1 ,  0.2542295952611305e-1 ,  0.3047924069960347e-1 ,  0.3536907109759211e-1 ,  0.4006573518069226e-1 ,  0.4454357777196588e-1 ,  0.4877814079280325e-1 ,  0.5274629569917407e-1 ,  0.5642636935801838e-1 ,  0.5979826222758665e-1 ,  0.6284355804500258e-1 ,  0.6554562436490898e-1 ,  0.6788970337652194e-1 ,  0.6986299249259416e-1 ,  0.7145471426517098e-1 ,  0.726561752438041e-1 ,  0.7346081345346753e-1 ,  0.7386423423217288e-1 ,  0.7386423423217288e-1 ,  0.7346081345346753e-1 ,  0.726561752438041e-1 ,  0.7145471426517098e-1 ,  0.6986299249259416e-1 ,  0.6788970337652194e-1 ,  0.6554562436490898e-1 ,  0.6284355804500258e-1 ,  0.5979826222758665e-1 ,  0.5642636935801838e-1 ,  0.5274629569917407e-1 ,  0.4877814079280325e-1 ,  0.4454357777196588e-1 ,  0.4006573518069226e-1 ,  0.3536907109759211e-1 ,  0.3047924069960347e-1 ,  0.2542295952611305e-1 ,  0.2022786956905264e-1 ,  0.1492244369735749e-1 , 0.9536220301748502e-2 ,  0.4105998604649085e-2
};


/* 43 point rule points */
static double _GL_pt43[43]={
 -0.9984723322425077 ,  -0.9919595575932441 ,  -0.9802782209802553 ,  -0.96348661301408 ,  -0.9416719568476379 ,  -0.9149479072061387 ,  -0.8834537652186169 ,  -0.847353716209315 ,  -0.8068359641369386 ,  -0.7621117471949551 ,  -0.7134142352689571 ,  -0.6609973137514981 ,  -0.6051342596396009 ,  -0.5461163166600847 ,  -0.4842511767857347 ,  -0.4198613760292693 ,  -0.3532826128643038 ,  -0.2848619980329136 ,  -0.2149562448605182 ,  -0.1439298095107133 ,  -0.7215299087458624e-1 ,  0.0 ,  0.7215299087458624e-1 ,  0.1439298095107133 ,  0.2149562448605182 ,  0.2848619980329136 ,  0.3532826128643038 , 0.4198613760292693 ,  0.4842511767857347 ,  0.5461163166600847 ,  0.6051342596396009 ,  0.6609973137514981 ,  0.7134142352689571 ,  0.7621117471949551 ,  0.8068359641369386 ,  0.847353716209315 ,  0.8834537652186169 ,  0.9149479072061387 ,  0.9416719568476379 ,  0.96348661301408 ,  0.9802782209802553 ,  0.9919595575932441 ,  0.9984723322425077 
};

/* 43 point rule weights */
static double _GL_wt43[43]={
 0.3919490253844127e-2 ,  0.9103996637401403e-2 ,  0.1424875643157649e-1 ,  0.193199014236839e-1 ,  0.2429045661383882e-1 ,  0.2913441326149849e-1 ,  0.3382649208686029e-1 ,  0.3834222219413266e-1 ,  0.4265805719798208e-1 ,  0.4675149475434658e-1 ,  0.5060119278439016e-1 ,  0.5418708031888179e-1 ,  0.5749046195691052e-1 ,  0.6049411524999129e-1 ,  0.6318238044939611e-1 ,  0.655412421263228e-1 ,  0.6755840222936517e-1 ,  0.6922334419365668e-1 ,  0.7052738776508503e-1 ,  0.7146373425251414e-1 ,  0.7202750197142197e-1 ,  0.7221575169379899e-1 ,  0.7202750197142197e-1 ,  0.7146373425251414e-1 ,  0.7052738776508503e-1 ,  0.6922334419365668e-1 ,  0.6755840222936517e-1 ,  0.655412421263228e-1 ,  0.6318238044939611e-1 ,  0.6049411524999129e-1 ,  0.5749046195691052e-1 ,  0.5418708031888179e-1 ,  0.5060119278439016e-1 ,  0.4675149475434658e-1 ,  0.4265805719798208e-1 ,  0.3834222219413266e-1 ,  0.3382649208686029e-1 ,  0.2913441326149849e-1 ,  0.2429045661383882e-1 ,  0.193199014236839e-1 ,  0.1424875643157649e-1 ,  0.9103996637401403e-2 ,  0.3919490253844127e-2
};

/* 44 point rule points */
static double _GL_pt44[44]={
 -0.9985402006367742 ,  -0.9923163921385158 ,  -0.981151833077914 ,  -0.9650996504224931 ,  -0.9442395091181941 ,  -0.9186752599841758 ,  -0.8885342382860432 ,  -0.8539665950047104 ,  -0.815144539645135 ,  -0.7722614792487559 ,  -0.725531053660717 ,  -0.6751860706661224 ,  -0.6214773459035758 ,  -0.5646724531854708 ,  -0.5050543913882023 ,  -0.4429201745254115 ,  -0.3785793520147071 ,  -0.3123524665027858 ,  -0.2445694569282013 ,  -0.1755680147755168 ,  -0.1056919017086532 ,  -0.3528923696413536e-1 ,  0.3528923696413536e-1 ,  0.1056919017086532 ,  0.1755680147755168 ,  0.2445694569282013 ,  0.3123524665027858 ,  0.3785793520147071 ,  0.4429201745254115 ,  0.5050543913882023 ,  0.5646724531854708 ,  0.6214773459035758 ,  0.6751860706661224 ,  0.725531053660717 ,  0.7722614792487559 ,  0.815144539645135 ,  0.8539665950047104 ,  0.8885342382860432 ,  0.9186752599841758 ,  0.9442395091181941 ,  0.9650996504224931 ,  0.981151833077914 ,  0.9923163921385158 ,  0.9985402006367742  
};

/* 44 point rule weights */
static double _GL_wt44[44]={
 0.3745404803112778e-2 ,  0.8700481367524844e-2 ,  0.1361958675557999e-1 ,  0.1847148173681475e-1 ,  0.2323148190201921e-1 ,  0.2787578282128101e-1 ,  0.3238122281206982e-1 ,  0.3672534781380887e-1 ,  0.4088651231034622e-1 ,  0.4484398408197003e-1 ,  0.4857804644835204e-1 ,  0.5207009609170446e-1 ,  0.5530273556372805e-1 ,  0.582598598775955e-1 ,  0.6092673670156197e-1 ,  0.6329007973320385e-1 ,  0.6533811487918143e-1 ,  0.6706063890629365e-1 ,  0.6844907026936666e-1 ,  0.6949649186157258e-1 ,  0.7019768547355821e-1 ,  0.7054915778935407e-1 ,  0.7054915778935407e-1 ,  0.7019768547355821e-1 ,  0.6949649186157258e-1 ,  0.6844907026936666e-1 ,  0.6706063890629365e-1 ,  0.6533811487918143e-1 ,  0.6329007973320385e-1 ,  0.6092673670156197e-1 ,  0.582598598775955e-1 ,  0.5530273556372805e-1 ,  0.5207009609170446e-1 ,  0.4857804644835204e-1 ,  0.4484398408197003e-1 ,  0.4088651231034622e-1 ,  0.3672534781380887e-1 ,  0.3238122281206982e-1 ,  0.2787578282128101e-1 ,  0.2323148190201921e-1 ,  0.1847148173681475e-1 ,  0.1361958675557999e-1 ,  0.8700481367524844e-2 ,  0.3745404803112778e-2 
};


/* 45 point rule points */
static double _GL_pt45[45]={
 -0.9986036451819366 ,  -0.9926499984472037 ,  -0.9819687150345406 ,  -0.9666083103968946 ,  -0.9466416909956291 ,  -0.9221639367190004 ,  -0.8932916717532417 ,  -0.8601624759606642 ,  -0.8229342205020863 ,  -0.7817843125939063 ,  -0.7369088489454904 ,  -0.6885216807712005 ,  -0.6368533944532234 ,  -0.5821502125693532 ,  -0.5246728204629161 ,  -0.4646951239196351 ,  -0.4025029438585419 ,  -0.3383926542506022 ,  -0.2726697697523776 ,  -0.2056474897832637 ,  -0.137645205983253 ,  -0.6898698016314417e-1 ,  0.0 ,  0.6898698016314417e-1 ,  0.137645205983253 ,  0.2056474897832637 ,  0.2726697697523776 ,  0.3383926542506022 ,  0.4025029438585419 ,  0.4646951239196351 ,  0.5246728204629161 ,  0.5821502125693532 ,  0.6368533944532234 ,  0.6885216807712005 ,  0.7369088489454904 ,  0.7817843125939063 ,  0.8229342205020863 ,  0.8601624759606642 ,  0.8932916717532417 ,  0.9221639367190004 ,  0.9466416909956291 ,  0.9666083103968946 ,  0.9819687150345406 ,  0.9926499984472037 ,  0.9986036451819366
};

/* 45 point rule weights */
static double _GL_wt45[45]={
 0.3582663155283559e-2 ,  0.8323189296218242e-2 ,  0.1303110499158278e-1 ,  0.1767753525793759e-1 ,  0.2223984755057873e-1 ,  0.2669621396757766e-1 ,  0.3102537493451547e-1 ,  0.3520669220160902e-1 ,  0.3922023672930245e-1 ,  0.4304688070916497e-1 ,  0.4666838771837337e-1 ,  0.5006749923795203e-1 ,  0.5322801673126895e-1 ,  0.5613487875978648e-1 ,  0.5877423271884174e-1 ,  0.6113350083106652e-1 ,  0.6320144007381994e-1 ,  0.6496819575072343e-1 ,  0.6642534844984253e-1 ,  0.6756595416360754e-1 ,  0.6838457737866967e-1 ,  0.6887731697766132e-1 ,  0.6904182482923202e-1 ,  0.6887731697766132e-1 ,  0.6838457737866967e-1 ,  0.6756595416360754e-1 ,  0.6642534844984253e-1 ,  0.6496819575072343e-1 ,  0.6320144007381994e-1 ,  0.6113350083106652e-1 ,  0.5877423271884174e-1 ,  0.5613487875978648e-1 ,  0.5322801673126895e-1 ,  0.5006749923795203e-1 ,  0.4666838771837337e-1 ,  0.4304688070916497e-1 ,  0.3922023672930245e-1 ,  0.3520669220160902e-1 ,  0.3102537493451547e-1 ,  0.2669621396757766e-1 ,  0.2223984755057873e-1 ,  0.1767753525793759e-1 ,  0.1303110499158278e-1 ,  0.8323189296218242e-2 ,  0.3582663155283559e-2
};


/* 46 point rule points */
static double _GL_pt46[46]={
 -0.998663042133818 ,  -0.9929623489061744 ,  -0.9827336698041669 ,  -0.9680213918539919 ,  -0.9488923634460898 ,  -0.925433798806754 ,  -0.897752711533942 ,  -0.8659753948668581 ,  -0.8302468370660661 ,  -0.7907300570752743 ,  -0.7476053596156661 ,  -0.7010695120204057 ,  -0.6513348462019977 ,  -0.5986282897127152 ,  -0.5431903302618026 ,  -0.4852739183881647 ,  -0.4251433132828284 ,  -0.3630728770209957 ,  -0.29934582270187 ,  -0.2342529222062698 ,  -0.1680911794671035 ,  -0.1011624753055842 ,  -0.3377219001605204e-1 ,  0.3377219001605204e-1 ,  0.1011624753055842 ,  0.1680911794671035 ,  0.2342529222062698 ,  0.29934582270187 ,  0.3630728770209957 ,  0.4251433132828284 ,  0.4852739183881647 ,  0.5431903302618026 ,  0.5986282897127152 ,  0.6513348462019977 ,  0.7010695120204057 ,  0.7476053596156661 ,  0.7907300570752743 ,  0.8302468370660661 ,  0.8659753948668581 ,  0.897752711533942 ,  0.925433798806754 ,  0.9488923634460898 ,  0.9680213918539919 ,  0.9827336698041669 ,  0.9929623489061744 ,  0.998663042133818 
};

/* 46 point rule weights */
static double _GL_wt46[46]={
 0.3430300868107048e-2 ,  0.7969898229724622e-2 ,  0.1247988377098868e-1 ,  0.1693351400783624e-1 ,  0.213099987541365e-1 ,  0.2558928639713001e-1 ,  0.2975182955220276e-1 ,  0.337786279991069e-1 ,  0.3765130535738607e-1 ,  0.4135219010967873e-1 ,  0.4486439527731813e-1 ,  0.481718951017122e-1 ,  0.5125959800714302e-1 ,  0.5411341538585675e-1 ,  0.5672032584399124e-1 ,  0.5906843459554631e-1 ,  0.6114702772465048e-1 ,  0.6294662106439451e-1 ,  0.6445900346713907e-1 ,  0.6567727426778121e-1 ,  0.6659587476845489e-1 ,  0.6721061360067818e-1 ,  0.6751868584903646e-1 ,  0.6751868584903646e-1 ,  0.6721061360067818e-1 ,  0.6659587476845489e-1 ,  0.6567727426778121e-1 ,  0.6445900346713907e-1 ,  0.6294662106439451e-1 ,  0.6114702772465048e-1 , 0.5906843459554631e-1 ,  0.5672032584399124e-1 ,  0.5411341538585675e-1 ,  0.5125959800714302e-1 ,  0.481718951017122e-1 ,  0.4486439527731813e-1 ,  0.4135219010967873e-1 ,  0.3765130535738607e-1 ,  0.337786279991069e-1 ,  0.2975182955220276e-1 ,  0.2558928639713001e-1 ,  0.213099987541365e-1 ,  0.1693351400783624e-1 ,  0.1247988377098868e-1 ,  0.7969898229724622e-2 ,  0.3430300868107048e-2};



/* 47 point rule points */
static double _GL_pt47[47]={
 -0.9987187285842121 ,  -0.9932552109877686 ,  -0.9834510030716237 ,  -0.9693467873265645 ,  -0.9510039692577084 ,  -0.9285026930123606 ,  -0.9019413294385254 ,  -0.8714360157968963 ,  -0.8371201398999021 ,  -0.7991437541677419 ,  -0.7576729184454386 ,  -0.7128889734090643 ,  -0.6649877473903327 ,  -0.6141786999563736 ,  -0.5606840059346642 ,  -0.5047375838635779 ,  -0.4465840731048557 ,  -0.3864777640846671 ,  -0.3246814863377359 ,  -0.2614654592149746 ,  -0.1971061102791118 ,  -0.1318848665545149 ,  -0.6608692391635568e-1 ,  0.0 ,  0.6608692391635568e-1 ,  0.1318848665545149 ,  0.1971061102791118 ,  0.2614654592149746 ,  0.3246814863377359 ,  0.3864777640846671 ,  0.4465840731048557 ,  0.5047375838635779 ,  0.5606840059346642 ,  0.6141786999563736 ,  0.6649877473903327 ,  0.7128889734090643 ,  0.7576729184454386 ,  0.7991437541677419 ,  0.8371201398999021 ,  0.8714360157968963 ,  0.9019413294385254 ,  0.9285026930123606 ,  0.9510039692577084 ,  0.9693467873265645 ,  0.9834510030716237 ,  0.9932552109877686 ,  0.9987187285842121 
};

/* 47 point rule weights */
static double _GL_wt47[47]={
 0.3287453842528015e-2 ,  0.7638616295848834e-2 ,  0.1196284846431232e-1 ,  0.1623533314643306e-1 ,  0.2043693814766843e-1 ,  0.2454921165965882e-1 ,  0.2855415070064339e-1 ,  0.3243423551518476e-1 ,  0.3617249658417495e-1 ,  0.39752586122531e-1 ,  0.4315884864847954e-1 ,  0.4637638908650591e-1 ,  0.4939113774736117e-1 ,  0.5218991178005714e-1 ,  0.5476047278153023e-1 ,  0.5709158029323154e-1 ,  0.5917304094233888e-1 ,  0.6099575300873965e-1 ,  0.6255174622092166e-1 ,  0.6383421660571703e-1 ,  0.6483755623894573e-1 ,  0.6555737776654974e-1 ,  0.6599053358881047e-1 ,  0.6613512962365548e-1 ,  0.6599053358881047e-1 ,  0.6555737776654974e-1 ,  0.6483755623894573e-1 ,  0.6383421660571703e-1 ,  0.6255174622092166e-1 ,  0.6099575300873965e-1 ,  0.5917304094233888e-1 ,  0.5709158029323154e-1 ,  0.5476047278153023e-1 ,  0.5218991178005714e-1 ,  0.4939113774736117e-1 ,  0.4637638908650591e-1 ,  0.4315884864847954e-1 ,  0.39752586122531e-1 ,  0.3617249658417495e-1 ,  0.3243423551518476e-1 ,  0.2855415070064339e-1 ,  0.2454921165965882e-1 ,  0.2043693814766843e-1 ,  0.1623533314643306e-1 ,  0.1196284846431232e-1 ,  0.7638616295848834e-2 ,  0.3287453842528015e-2 
};


/* 48 point rule points */
static double _GL_pt48[48]={
 -0.9987710072524261, -0.9935301722663508 ,  -0.9841245837228269 ,  -0.9705915925462473 ,  -0.9529877031604309 ,  -0.9313866907065543 ,  -0.9058791367155697 ,  -0.8765720202742479 ,  -0.8435882616243935 ,  -0.8070662040294426 ,  -0.7671590325157403 ,  -0.7240341309238147 ,  -0.6778723796326639 ,  -0.6288673967765136 ,  -0.5772247260839727 ,  -0.523160974722233 ,  -0.4669029047509584 ,  -0.4086864819907167 ,  -0.3487558862921607 ,  -0.2873624873554556 ,  -0.2247637903946891 ,  -0.1612223560688917 ,  -0.970046992094627e-1 ,  -0.3238017096286936e-1 ,  0.3238017096286936e-1 ,  0.970046992094627e-1 ,  0.1612223560688917 ,  0.2247637903946891 ,  0.2873624873554556 ,  0.3487558862921607 ,  0.4086864819907167 ,  0.4669029047509584 ,  0.523160974722233 ,  0.5772247260839727 ,  0.6288673967765136 ,  0.6778723796326639 ,  0.7240341309238147 ,  0.7671590325157403 ,  0.8070662040294426 ,  0.8435882616243935 ,  0.8765720202742479 ,  0.9058791367155697 ,  0.9313866907065543 ,  0.9529877031604309 ,  0.9705915925462473 ,  0.9841245837228269 ,  0.9935301722663508 ,  0.9987710072524261 
};

/* 48 point rule weights */
static double _GL_wt48[48]={
 0.3153346052305839e-2 ,  0.7327553901276262e-2 ,  0.1147723457923454e-1 ,  0.1557931572294385e-1 ,  0.1961616045735553e-1 ,  0.2357076083932438e-1 ,  0.2742650970835695e-1 ,  0.3116722783279809e-1 ,  0.3477722256477044e-1 ,  0.3824135106583071e-1 ,  0.4154508294346475e-1 ,  0.4467456085669428e-1 ,  0.4761665849249047e-1 ,  0.5035903555385447e-1 ,  0.5289018948519367e-1 ,  0.5519950369998416e-1 ,  0.5727729210040322e-1 ,  0.5911483969839564e-1 ,  0.6070443916589388e-1 ,  0.6203942315989266e-1 ,  0.6311419228625403e-1 ,  0.6392423858464819e-1 ,  0.6446616443595008e-1 ,  0.6473769681268392e-1 ,  0.6473769681268392e-1 ,  0.6446616443595008e-1 ,  0.6392423858464819e-1 ,  0.6311419228625403e-1 ,  0.6203942315989266e-1 ,  0.6070443916589388e-1 ,  0.5911483969839564e-1 ,  0.5727729210040322e-1 ,  0.5519950369998416e-1 ,  0.5289018948519367e-1 ,  0.5035903555385447e-1 ,  0.4761665849249047e-1 ,  0.4467456085669428e-1 ,  0.4154508294346475e-1 ,  0.3824135106583071e-1 ,  0.3477722256477044e-1 ,  0.3116722783279809e-1 ,  0.2742650970835695e-1 ,  0.2357076083932438e-1 ,  0.1961616045735553e-1 ,  0.1557931572294385e-1 ,  0.1147723457923454e-1 ,  0.7327553901276262e-2 ,  0.3153346052305839e-2 
};


/* 49 point rule points */
static double _GL_pt49[49]={
 -0.9988201506066354 ,  -0.9937886619441678 ,  -0.984757895914213 ,  -0.9717622009015554 ,  -0.9548536586741372 ,  -0.9341002947558101 ,  -0.9095856558280733 ,  -0.8814084455730089 ,  -0.8496821198441657 ,  -0.8145344273598554 ,  -0.7761068943454466 ,  -0.7345542542374027 ,  -0.6900438244251321 ,  -0.6427548324192377 ,  -0.5928776941089007 ,  -0.5406132469917261 ,  -0.486171941452492 ,  -0.4297729933415765 ,  -0.3716435012622849 ,  -0.3120175321197488 ,  -0.2511351786125773 ,  -0.1892415924618136 ,  -0.1265859972696721 ,  -0.6342068498268679e-1 ,  0.0 ,  0.6342068498268679e-1 ,  0.1265859972696721 ,  0.1892415924618136 ,  0.2511351786125773 ,  0.3120175321197488 ,  0.3716435012622849 ,  0.4297729933415765 ,  0.486171941452492 ,  0.5406132469917261 ,  0.5928776941089007 ,  0.6427548324192377 ,  0.6900438244251321 ,  0.7345542542374027 ,  0.7761068943454466 ,  0.8145344273598554 ,  0.8496821198441657 ,  0.8814084455730089 ,  0.9095856558280733 ,  0.9341002947558101 ,  0.9548536586741372 ,  0.9717622009015554 ,  0.984757895914213 ,  0.9937886619441678 ,  0.9988201506066354 , 
};

/* 49 point rule weights */
static double _GL_wt49[49]={
 0.3027278988922905e-2 ,  0.7035099590086451e-2 ,  0.1102055103159358e-1 ,  0.1496214493562465e-1 ,  0.1884359585308946e-1 ,  0.2264920158744668e-1 ,  0.2636361892706602e-1 ,  0.2997188462058383e-1 ,  0.3345946679162217e-1 ,  0.3681232096300069e-1 ,  0.4001694576637302e-1 ,  0.430604369812596e-1 ,  0.4593053935559585e-1 ,  0.4861569588782824e-1 ,  0.5110509433014459e-1 ,  0.5338871070825897e-1 ,  0.5545734967480359e-1 ,  0.5730268153018748e-1 ,  0.5891727576002727e-1 ,  0.6029463095315202e-1 ,  0.6142920097919294e-1 ,  0.6231641732005727e-1 ,  0.629527074651957e-1 ,  0.6333550929649175e-1 ,  0.634632814047906e-1 ,  0.6333550929649175e-1 ,  0.629527074651957e-1 ,  0.6231641732005727e-1 ,  0.6142920097919294e-1 ,  0.6029463095315202e-1 ,  0.5891727576002727e-1 ,  0.5730268153018748e-1 ,  0.5545734967480359e-1 ,  0.5338871070825897e-1 ,  0.5110509433014459e-1 ,  0.4861569588782824e-1 ,  0.4593053935559585e-1 ,  0.430604369812596e-1 ,  0.4001694576637302e-1 ,  0.3681232096300069e-1 ,  0.3345946679162217e-1 ,  0.2997188462058383e-1 ,  0.2636361892706602e-1 ,  0.2264920158744668e-1 ,  0.1884359585308946e-1 ,  0.1496214493562465e-1 ,  0.1102055103159358e-1 ,  0.7035099590086451e-2 ,  0.3027278988922905e-2
};





int GaussLegendre1D(int npt, double **pt, double **wt) {
  switch(npt) {
  case  1: {
    *pt = _GL_pt1;
    *wt = _GL_wt1;
    break;
  }
  case  2: {
    *pt = _GL_pt2;
    *wt = _GL_wt2;
    break;
  }
  case  3: {
    *pt = _GL_pt3;
    *wt = _GL_wt3;
    break;
  }
  case  4: {
    *pt = _GL_pt4;
    *wt = _GL_wt4;
    break;
  }
  case  5: {
    *pt = _GL_pt5;
    *wt = _GL_wt5;
    break;
  }
  case  6: {
    *pt = _GL_pt6;
    *wt = _GL_wt6;
    break;
  }
  case  7: {
    *pt = _GL_pt7;
    *wt = _GL_wt7;
    break;
  }
  case  8: {
    *pt = _GL_pt8;
    *wt = _GL_wt8;
    break;
  }
  case  9: {
    *pt = _GL_pt9;
    *wt = _GL_wt9;
    break;
  }
  case 10: {
    *pt = _GL_pt10;
    *wt = _GL_wt10;
    break;
  }
  case 11: {
    *pt = _GL_pt11;
    *wt = _GL_wt11;
    break;
  }
  case 12: {
    *pt = _GL_pt12;
    *wt = _GL_wt12;
    break;
  }
  case 13: {
    *pt = _GL_pt13;
    *wt = _GL_wt13;
    break;
  }
  case 14: {
    *pt = _GL_pt14;
    *wt = _GL_wt14;
    break;
  }
  case 15: {
    *pt = _GL_pt15;
    *wt = _GL_wt15;
    break;
  }
  case 16: {
    *pt = _GL_pt16;
    *wt = _GL_wt16;
    break;
  }
  case 17: {
    *pt = _GL_pt17;
    *wt = _GL_wt17;
    break;
  }
  case 18: {
    *pt = _GL_pt18;
    *wt = _GL_wt18;
    break;
  }
  case 19: {
    *pt = _GL_pt19;
    *wt = _GL_wt19;
    break;
  }
  case 20: {
    *pt = _GL_pt20;
    *wt = _GL_wt20;
    break;
  }

  case 21: {
    *pt = _GL_pt21;
    *wt = _GL_wt21;
    break;
  }
  case 22: {
    *pt = _GL_pt22;
    *wt = _GL_wt22;
    break;
  }
  case 23: {
    *pt = _GL_pt23;
    *wt = _GL_wt23;
    break;
  }
  case 24: {
    *pt = _GL_pt24;
    *wt = _GL_wt24;
    break;
  }
  case 25: {
    *pt = _GL_pt25;
    *wt = _GL_wt25;
    break;
  }
  case 26: {
    *pt = _GL_pt26;
    *wt = _GL_wt26;
    break;
  }
  case 27: {
    *pt = _GL_pt27;
    *wt = _GL_wt27;
    break;
  }
  case 28: {
    *pt = _GL_pt28;
    *wt = _GL_wt28;
    break;
  }
  case 29: {
    *pt = _GL_pt29;
    *wt = _GL_wt29;
    break;
  }
  case 30: {
    *pt = _GL_pt30;
    *wt = _GL_wt30;
    break;
  }
  case 31: {
    *pt = _GL_pt31;
    *wt = _GL_wt31;
    break;
  }
  case 32: {
    *pt = _GL_pt32;
    *wt = _GL_wt32;
    break;
  }
  case 33: {
    *pt = _GL_pt33;
    *wt = _GL_wt33;
    break;
  }
  case 34: {
    *pt = _GL_pt34;
    *wt = _GL_wt34;
    break;
  }
  case 35: {
    *pt = _GL_pt35;
    *wt = _GL_wt35;
    break;
  }
  case 36: {
    *pt = _GL_pt36;
    *wt = _GL_wt36;
    break;
  }
  case 37: {
    *pt = _GL_pt37;
    *wt = _GL_wt37;
    break;
  }
  case 38: {
    *pt = _GL_pt38;
    *wt = _GL_wt38;
    break;
  }
  case 39: {
    *pt = _GL_pt39;
    *wt = _GL_wt39;
    break;
  }
  case 40: {
    *pt = _GL_pt40;
    *wt = _GL_wt40;
    break;
  }
  case 41: {
    *pt = _GL_pt41;
    *wt = _GL_wt41;
    break;
  }
  case 42: {
    *pt = _GL_pt42;
    *wt = _GL_wt42;
    break;
  }
  case 43: {
    *pt = _GL_pt43;
    *wt = _GL_wt43;
    break;
  }
  case 44: {
    *pt = _GL_pt44;
    *wt = _GL_wt44;
    break;
  }
  case 45: {
    *pt = _GL_pt45;
    *wt = _GL_wt45;
    break;
  }
  case 46: {
    *pt = _GL_pt46;
    *wt = _GL_wt46;
    break;
  }
  case 47: {
    *pt = _GL_pt47;
    *wt = _GL_wt47;
    break;
  }
  case 48: {
    *pt = _GL_pt48;
    *wt = _GL_wt48;
    break;
  }
  case 49: {
    *pt = _GL_pt49;
    *wt = _GL_wt49;
    break;
  }
  default:
    printf("gauss-legendre integration points are only programmed for order < 50 (asked %d)\n",npt);
    throw 1;
  };
  return 1;
}

